<?xml version="1.0" encoding="UTF-8" standalone="yes"?>
<PMML xmlns="http://www.dmg.org/PMML-4_4" xmlns:data="http://jpmml.org/jpmml-model/InlineTable" version="4.4">
	<Header>
		<Application name="JPMML-SparkML" version="1.7.2"/>
		<Timestamp>2021-07-06T17:30:28Z</Timestamp>
	</Header>
	<DataDictionary>
		<DataField name="number_months_available" optype="continuous" dataType="integer"/>
		<DataField name="total_checkouts" optype="continuous" dataType="integer"/>
		<DataField name="previous_quarter_checkouts" optype="continuous" dataType="integer"/>
		<DataField name="previous_month_checkouts" optype="continuous" dataType="integer"/>
		<DataField name="current_month_checkouts" optype="continuous" dataType="integer"/>
		<DataField name="total_collection_central" optype="continuous" dataType="integer"/>
		<DataField name="previous_quarter_collection_central" optype="continuous" dataType="integer"/>
		<DataField name="previous_month_collection_central" optype="continuous" dataType="integer"/>
		<DataField name="current_month_collection_central" optype="continuous" dataType="integer"/>
		<DataField name="total_collection_other" optype="continuous" dataType="integer"/>
		<DataField name="previous_quarter_collection_other" optype="continuous" dataType="integer"/>
		<DataField name="previous_month_collection_other" optype="continuous" dataType="integer"/>
		<DataField name="current_month_collection_other" optype="continuous" dataType="integer"/>
		<DataField name="target" optype="continuous" dataType="double"/>
	</DataDictionary>
	<TransformationDictionary/>
	<MiningModel functionName="regression">
		<MiningSchema>
			<MiningField name="target" usageType="target"/>
			<MiningField name="number_months_available"/>
			<MiningField name="total_checkouts"/>
			<MiningField name="previous_quarter_checkouts"/>
			<MiningField name="previous_month_checkouts"/>
			<MiningField name="current_month_checkouts"/>
			<MiningField name="total_collection_central"/>
			<MiningField name="previous_quarter_collection_central"/>
			<MiningField name="previous_month_collection_central"/>
			<MiningField name="current_month_collection_central"/>
			<MiningField name="total_collection_other"/>
			<MiningField name="previous_quarter_collection_other"/>
			<MiningField name="previous_month_collection_other"/>
			<MiningField name="current_month_collection_other"/>
		</MiningSchema>
		<Output>
			<OutputField name="prediction" optype="continuous" dataType="double"/>
		</Output>
		<Segmentation multipleModelMethod="weightedSum">
			<Segment id="1">
				<True/>
				<TreeModel functionName="regression" missingValueStrategy="nullPrediction" noTrueChildStrategy="returnLastPrediction">
					<MiningSchema>
						<MiningField name="number_months_available"/>
						<MiningField name="total_checkouts"/>
						<MiningField name="previous_quarter_checkouts"/>
						<MiningField name="previous_month_checkouts"/>
						<MiningField name="current_month_checkouts"/>
						<MiningField name="total_collection_central"/>
						<MiningField name="previous_quarter_collection_central"/>
						<MiningField name="previous_month_collection_central"/>
						<MiningField name="current_month_collection_central"/>
						<MiningField name="total_collection_other"/>
						<MiningField name="previous_quarter_collection_other"/>
						<MiningField name="previous_month_collection_other"/>
						<MiningField name="current_month_collection_other"/>
					</MiningSchema>
					<Node score="360.0">
						<True/>
						<Node score="40.43835616438356">
							<SimplePredicate field="current_month_checkouts" operator="lessOrEqual" value="245.0"/>
							<Node score="36.30573248407644">
								<SimplePredicate field="current_month_checkouts" operator="lessOrEqual" value="49.0"/>
								<Node score="65.0">
									<SimplePredicate field="current_month_checkouts" operator="lessOrEqual" value="12.0"/>
									<Node score="1.0">
										<SimplePredicate field="current_month_checkouts" operator="lessOrEqual" value="3.0"/>
										<Node score="0.0">
											<SimplePredicate field="current_month_checkouts" operator="lessOrEqual" value="0.0"/>
											<Node score="0.0">
												<SimplePredicate field="previous_quarter_collection_other" operator="lessOrEqual" value="836.0"/>
												<Node score="2.1145833333333335">
													<SimplePredicate field="previous_quarter_checkouts" operator="lessOrEqual" value="17.0"/>
													<Node score="0.36363636363636365">
														<SimplePredicate field="previous_quarter_collection_other" operator="lessOrEqual" value="151.0"/>
													</Node>
												</Node>
											</Node>
											<Node score="7.875">
												<SimplePredicate field="previous_quarter_checkouts" operator="lessOrEqual" value="0.0"/>
												<Node score="0.0">
													<SimplePredicate field="total_collection_central" operator="lessOrEqual" value="179.0"/>
												</Node>
											</Node>
										</Node>
										<Node score="5.6">
											<SimplePredicate field="previous_quarter_collection_other" operator="lessOrEqual" value="534.0"/>
											<Node score="2.6923076923076925">
												<SimplePredicate field="total_checkouts" operator="lessOrEqual" value="19.0"/>
												<Node score="1.0689655172413792">
													<SimplePredicate field="previous_quarter_checkouts" operator="lessOrEqual" value="6.0"/>
												</Node>
											</Node>
											<Node score="2.9565217391304346">
												<SimplePredicate field="previous_month_checkouts" operator="lessOrEqual" value="7.0"/>
											</Node>
										</Node>
										<Node score="21.0">
											<SimplePredicate field="previous_quarter_collection_central" operator="lessOrEqual" value="77.0"/>
										</Node>
										<Node score="9.222222222222221">
											<SimplePredicate field="previous_quarter_collection_other" operator="lessOrEqual" value="676.0"/>
										</Node>
									</Node>
									<Node score="10.0625">
										<SimplePredicate field="previous_quarter_collection_other" operator="lessOrEqual" value="557.0"/>
										<Node score="38.0">
											<SimplePredicate field="previous_quarter_collection_central" operator="lessOrEqual" value="23.0"/>
											<Node score="10.430232558139535">
												<SimplePredicate field="current_month_collection_other" operator="lessOrEqual" value="53.0"/>
												<Node score="14.954545454545455">
													<SimplePredicate field="total_collection_central" operator="lessOrEqual" value="14.0"/>
												</Node>
											</Node>
											<Node score="18.875">
												<SimplePredicate field="current_month_checkouts" operator="lessOrEqual" value="9.0"/>
											</Node>
										</Node>
										<Node score="6.7631578947368425">
											<SimplePredicate field="previous_month_checkouts" operator="lessOrEqual" value="15.0"/>
											<Node score="2.4">
												<SimplePredicate field="total_collection_other" operator="lessOrEqual" value="3.0"/>
											</Node>
										</Node>
										<Node score="17.833333333333332">
											<SimplePredicate field="previous_month_collection_other" operator="lessOrEqual" value="71.0"/>
										</Node>
									</Node>
									<Node score="33.0">
										<SimplePredicate field="previous_month_checkouts" operator="lessOrEqual" value="1.0"/>
										<Node score="19.0">
											<SimplePredicate field="previous_quarter_checkouts" operator="lessOrEqual" value="6.0"/>
											<Node score="12.0">
												<SimplePredicate field="previous_quarter_collection_central" operator="lessOrEqual" value="84.0"/>
											</Node>
										</Node>
										<Node score="25.4">
											<SimplePredicate field="total_checkouts" operator="lessOrEqual" value="1983.0"/>
										</Node>
									</Node>
									<Node score="42.0">
										<SimplePredicate field="current_month_checkouts" operator="lessOrEqual" value="9.0"/>
										<Node score="33.0">
											<SimplePredicate field="number_months_available" operator="lessOrEqual" value="7.0"/>
										</Node>
									</Node>
									<Node score="52.0">
										<SimplePredicate field="number_months_available" operator="lessOrEqual" value="6.0"/>
									</Node>
								</Node>
								<Node score="114.0">
									<SimplePredicate field="current_month_checkouts" operator="lessOrEqual" value="30.0"/>
									<Node score="27.25974025974026">
										<SimplePredicate field="current_month_collection_other" operator="lessOrEqual" value="206.0"/>
										<Node score="14.25">
											<SimplePredicate field="previous_quarter_collection_central" operator="lessOrEqual" value="6.0"/>
											<Node score="27.0">
												<SimplePredicate field="number_months_available" operator="lessOrEqual" value="8.0"/>
												<Node score="16.571428571428573">
													<SimplePredicate field="previous_quarter_checkouts" operator="lessOrEqual" value="99.0"/>
												</Node>
											</Node>
											<Node score="232.5">
												<SimplePredicate field="total_collection_central" operator="lessOrEqual" value="19.0"/>
											</Node>
										</Node>
										<Node score="40.0">
											<SimplePredicate field="current_month_checkouts" operator="lessOrEqual" value="21.0"/>
											<Node score="17.54980079681275">
												<SimplePredicate field="total_checkouts" operator="lessOrEqual" value="2974.0"/>
											</Node>
										</Node>
										<Node score="22.303867403314918">
											<SimplePredicate field="current_month_checkouts" operator="lessOrEqual" value="27.0"/>
										</Node>
									</Node>
									<Node score="50.0">
										<SimplePredicate field="previous_quarter_checkouts" operator="lessOrEqual" value="35.0"/>
										<Node score="69.0">
											<SimplePredicate field="total_checkouts" operator="lessOrEqual" value="285.0"/>
										</Node>
										<Node score="41.5">
											<SimplePredicate field="number_months_available" operator="lessOrEqual" value="8.0"/>
										</Node>
									</Node>
								</Node>
								<Node score="50.0">
									<SimplePredicate field="previous_month_collection_other" operator="lessOrEqual" value="29.0"/>
									<Node score="33.0">
										<SimplePredicate field="previous_month_checkouts" operator="lessOrEqual" value="33.0"/>
										<Node score="44.84615384615385">
											<SimplePredicate field="current_month_collection_central" operator="lessOrEqual" value="5.0"/>
											<Node score="165.0">
												<SimplePredicate field="previous_quarter_checkouts" operator="lessOrEqual" value="45.0"/>
											</Node>
										</Node>
										<Node score="255.0">
											<SimplePredicate field="number_months_available" operator="lessOrEqual" value="3.0"/>
										</Node>
									</Node>
									<Node score="266.25">
										<SimplePredicate field="previous_month_checkouts" operator="lessOrEqual" value="43.0"/>
										<Node score="102.0">
											<SimplePredicate field="previous_quarter_checkouts" operator="lessOrEqual" value="86.0"/>
										</Node>
									</Node>
									<Node score="46.0">
										<SimplePredicate field="number_months_available" operator="lessOrEqual" value="3.0"/>
									</Node>
								</Node>
								<Node score="83.0">
									<SimplePredicate field="previous_quarter_checkouts" operator="lessOrEqual" value="64.0"/>
									<Node score="47.0">
										<SimplePredicate field="previous_quarter_collection_central" operator="lessOrEqual" value="65.0"/>
										<Node score="33.0">
											<SimplePredicate field="number_months_available" operator="lessOrEqual" value="6.0"/>
										</Node>
									</Node>
									<Node score="66.5">
										<SimplePredicate field="previous_quarter_checkouts" operator="lessOrEqual" value="45.0"/>
									</Node>
								</Node>
								<Node score="107.25">
									<SimplePredicate field="previous_month_collection_other" operator="lessOrEqual" value="36.0"/>
									<Node score="35.5">
										<SimplePredicate field="previous_month_checkouts" operator="lessOrEqual" value="43.0"/>
									</Node>
								</Node>
								<Node score="28.875816993464053">
									<SimplePredicate field="current_month_checkouts" operator="lessOrEqual" value="39.0"/>
								</Node>
							</Node>
							<Node score="124.0">
								<SimplePredicate field="current_month_checkouts" operator="lessOrEqual" value="110.0"/>
								<Node score="498.0">
									<SimplePredicate field="previous_quarter_collection_other" operator="lessOrEqual" value="18.0"/>
								</Node>
								<Node score="84.4">
									<SimplePredicate field="previous_month_collection_other" operator="lessOrEqual" value="49.0"/>
									<Node score="453.0">
										<SimplePredicate field="current_month_collection_central" operator="lessOrEqual" value="4.0"/>
										<Node score="166.0">
											<SimplePredicate field="previous_quarter_checkouts" operator="lessOrEqual" value="147.0"/>
											<Node score="63.0">
												<SimplePredicate field="total_checkouts" operator="lessOrEqual" value="159.0"/>
											</Node>
										</Node>
										<Node score="351.5">
											<SimplePredicate field="number_months_available" operator="lessOrEqual" value="8.0"/>
										</Node>
									</Node>
									<Node score="365.0">
										<SimplePredicate field="current_month_collection_other" operator="lessOrEqual" value="32.0"/>
									</Node>
									<Node score="348.0">
										<SimplePredicate field="previous_quarter_collection_central" operator="lessOrEqual" value="6.0"/>
									</Node>
								</Node>
								<Node score="82.2909090909091">
									<SimplePredicate field="previous_month_checkouts" operator="lessOrEqual" value="173.0"/>
									<Node score="54.515151515151516">
										<SimplePredicate field="current_month_checkouts" operator="lessOrEqual" value="77.0"/>
										<Node score="117.16666666666667">
											<SimplePredicate field="total_checkouts" operator="lessOrEqual" value="116.0"/>
										</Node>
									</Node>
									<Node score="125.75">
										<SimplePredicate field="previous_month_checkouts" operator="lessOrEqual" value="29.0"/>
									</Node>
								</Node>
								<Node score="144.0">
									<SimplePredicate field="total_checkouts" operator="lessOrEqual" value="285.0"/>
								</Node>
								<Node score="37.078947368421055">
									<SimplePredicate field="total_collection_central" operator="lessOrEqual" value="265.0"/>
								</Node>
							</Node>
							<Node score="55.0">
								<SimplePredicate field="previous_month_checkouts" operator="lessOrEqual" value="275.0"/>
								<Node score="403.0">
									<SimplePredicate field="current_month_collection_other" operator="lessOrEqual" value="57.0"/>
									<Node score="148.0">
										<SimplePredicate field="number_months_available" operator="lessOrEqual" value="2.0"/>
									</Node>
									<Node score="502.0">
										<SimplePredicate field="total_collection_central" operator="lessOrEqual" value="19.0"/>
										<Node score="469.0">
											<SimplePredicate field="total_checkouts" operator="lessOrEqual" value="240.0"/>
										</Node>
									</Node>
								</Node>
								<Node score="85.11111111111111">
									<SimplePredicate field="current_month_checkouts" operator="lessOrEqual" value="183.0"/>
									<Node score="132.12087912087912">
										<SimplePredicate field="previous_quarter_checkouts" operator="lessOrEqual" value="602.0"/>
										<Node score="99.03125">
											<SimplePredicate field="previous_month_collection_other" operator="lessOrEqual" value="118.0"/>
										</Node>
									</Node>
									<Node score="26.5">
										<SimplePredicate field="current_month_checkouts" operator="lessOrEqual" value="138.0"/>
									</Node>
								</Node>
								<Node score="208.76470588235293">
									<SimplePredicate field="total_checkouts" operator="lessOrEqual" value="1095.0"/>
									<Node score="171.0">
										<SimplePredicate field="total_collection_other" operator="lessOrEqual" value="438.0"/>
									</Node>
								</Node>
								<Node score="114.0">
									<SimplePredicate field="number_months_available" operator="lessOrEqual" value="5.0"/>
								</Node>
							</Node>
							<Node score="0.0">
								<SimplePredicate field="previous_month_collection_central" operator="lessOrEqual" value="24.0"/>
								<Node score="279.0">
									<SimplePredicate field="previous_month_checkouts" operator="lessOrEqual" value="312.0"/>
									<Node score="151.0">
										<SimplePredicate field="current_month_collection_central" operator="lessOrEqual" value="24.0"/>
										<Node score="162.0">
											<SimplePredicate field="number_months_available" operator="lessOrEqual" value="2.0"/>
										</Node>
									</Node>
								</Node>
							</Node>
							<Node score="293.0">
								<SimplePredicate field="previous_month_collection_other" operator="lessOrEqual" value="165.0"/>
								<Node score="203.0">
									<SimplePredicate field="number_months_available" operator="lessOrEqual" value="3.0"/>
									<Node score="126.0">
										<SimplePredicate field="total_collection_central" operator="lessOrEqual" value="73.0"/>
									</Node>
								</Node>
							</Node>
							<Node score="121.0">
								<SimplePredicate field="current_month_collection_other" operator="lessOrEqual" value="171.0"/>
							</Node>
							<Node score="0.0">
								<SimplePredicate field="total_collection_other" operator="lessOrEqual" value="438.0"/>
							</Node>
						</Node>
						<Node score="354.6666666666667">
							<SimplePredicate field="current_month_checkouts" operator="lessOrEqual" value="403.0"/>
							<Node score="197.0">
								<SimplePredicate field="current_month_checkouts" operator="lessOrEqual" value="332.0"/>
								<Node score="388.0">
									<SimplePredicate field="previous_quarter_collection_other" operator="lessOrEqual" value="127.0"/>
									<Node score="505.0">
										<SimplePredicate field="previous_month_collection_central" operator="lessOrEqual" value="3.0"/>
										<Node score="532.0">
											<SimplePredicate field="number_months_available" operator="lessOrEqual" value="2.0"/>
										</Node>
									</Node>
									<Node score="527.0">
										<SimplePredicate field="current_month_checkouts" operator="lessOrEqual" value="294.0"/>
										<Node score="470.0">
											<SimplePredicate field="number_months_available" operator="lessOrEqual" value="6.0"/>
											<Node score="483.0">
												<SimplePredicate field="number_months_available" operator="lessOrEqual" value="2.0"/>
											</Node>
										</Node>
									</Node>
								</Node>
								<Node score="314.6666666666667">
									<SimplePredicate field="previous_quarter_checkouts" operator="lessOrEqual" value="1173.0"/>
									<Node score="116.8">
										<SimplePredicate field="current_month_checkouts" operator="lessOrEqual" value="294.0"/>
										<Node score="184.61111111111111">
											<SimplePredicate field="previous_quarter_checkouts" operator="lessOrEqual" value="1080.0"/>
											<Node score="0.0">
												<SimplePredicate field="previous_quarter_checkouts" operator="lessOrEqual" value="423.0"/>
											</Node>
										</Node>
										<Node score="60.75">
											<SimplePredicate field="current_month_collection_central" operator="lessOrEqual" value="27.0"/>
										</Node>
									</Node>
									<Node score="259.1363636363636">
										<SimplePredicate field="total_collection_other" operator="lessOrEqual" value="949.0"/>
										<Node score="204.4">
											<SimplePredicate field="previous_quarter_collection_central" operator="lessOrEqual" value="55.0"/>
										</Node>
									</Node>
									<Node score="167.5">
										<SimplePredicate field="previous_quarter_collection_central" operator="lessOrEqual" value="90.0"/>
									</Node>
								</Node>
								<Node score="279.0">
									<SimplePredicate field="total_checkouts" operator="lessOrEqual" value="1272.0"/>
								</Node>
								<Node score="87.66666666666667">
									<SimplePredicate field="total_collection_other" operator="lessOrEqual" value="1572.0"/>
									<Node score="56.666666666666664">
										<SimplePredicate field="number_months_available" operator="lessOrEqual" value="4.0"/>
									</Node>
								</Node>
							</Node>
							<Node score="194.0">
								<SimplePredicate field="total_collection_other" operator="lessOrEqual" value="734.0"/>
								<Node score="515.0">
									<SimplePredicate field="previous_quarter_collection_other" operator="lessOrEqual" value="151.0"/>
									<Node score="399.0">
										<SimplePredicate field="number_months_available" operator="lessOrEqual" value="3.0"/>
										<Node score="451.0">
											<SimplePredicate field="total_checkouts" operator="lessOrEqual" value="451.0"/>
										</Node>
									</Node>
								</Node>
								<Node score="300.0">
									<SimplePredicate field="current_month_checkouts" operator="lessOrEqual" value="370.0"/>
									<Node score="364.5">
										<SimplePredicate field="previous_month_collection_central" operator="lessOrEqual" value="31.0"/>
										<Node score="297.7241379310345">
											<SimplePredicate field="total_checkouts" operator="lessOrEqual" value="1272.0"/>
										</Node>
									</Node>
									<Node score="94.0">
										<SimplePredicate field="number_months_available" operator="lessOrEqual" value="2.0"/>
									</Node>
								</Node>
								<Node score="337.5833333333333">
									<SimplePredicate field="number_months_available" operator="lessOrEqual" value="5.0"/>
									<Node score="397.3333333333333">
										<SimplePredicate field="previous_month_collection_central" operator="lessOrEqual" value="2.0"/>
									</Node>
								</Node>
								<Node score="252.0">
									<SimplePredicate field="total_checkouts" operator="lessOrEqual" value="914.0"/>
								</Node>
							</Node>
							<Node score="187.0">
								<SimplePredicate field="previous_month_collection_central" operator="lessOrEqual" value="28.0"/>
								<Node score="301.0">
									<SimplePredicate field="number_months_available" operator="lessOrEqual" value="6.0"/>
									<Node score="337.5">
										<SimplePredicate field="previous_quarter_collection_central" operator="lessOrEqual" value="77.0"/>
										<Node score="310.5">
											<SimplePredicate field="current_month_collection_other" operator="lessOrEqual" value="190.0"/>
										</Node>
									</Node>
									<Node score="71.0">
										<SimplePredicate field="total_checkouts" operator="lessOrEqual" value="2153.0"/>
									</Node>
								</Node>
								<Node score="251.0">
									<SimplePredicate field="total_checkouts" operator="lessOrEqual" value="2353.0"/>
								</Node>
								<Node score="99.2">
									<SimplePredicate field="number_months_available" operator="lessOrEqual" value="8.0"/>
								</Node>
							</Node>
							<Node score="259.2142857142857">
								<SimplePredicate field="number_months_available" operator="lessOrEqual" value="5.0"/>
								<Node score="335.8666666666667">
									<SimplePredicate field="previous_month_collection_other" operator="lessOrEqual" value="215.0"/>
									<Node score="231.0">
										<SimplePredicate field="previous_quarter_collection_other" operator="lessOrEqual" value="588.0"/>
									</Node>
								</Node>
								<Node score="152.69230769230768">
									<SimplePredicate field="current_month_checkouts" operator="lessOrEqual" value="370.0"/>
								</Node>
							</Node>
							<Node score="206.0">
								<SimplePredicate field="total_collection_other" operator="lessOrEqual" value="1437.0"/>
								<Node score="334.125">
									<SimplePredicate field="total_checkouts" operator="lessOrEqual" value="2353.0"/>
								</Node>
							</Node>
							<Node score="145.0">
								<SimplePredicate field="previous_month_collection_other" operator="lessOrEqual" value="234.0"/>
							</Node>
						</Node>
						<Node score="153.0">
							<SimplePredicate field="current_month_checkouts" operator="lessOrEqual" value="495.0"/>
							<Node score="151.0">
								<SimplePredicate field="current_month_checkouts" operator="lessOrEqual" value="443.0"/>
								<Node score="353.8235294117647">
									<SimplePredicate field="total_collection_central" operator="lessOrEqual" value="149.0"/>
									<Node score="475.0">
										<SimplePredicate field="previous_quarter_collection_other" operator="lessOrEqual" value="445.0"/>
										<Node score="386.7083333333333">
											<SimplePredicate field="current_month_collection_other" operator="lessOrEqual" value="259.0"/>
											<Node score="449.5">
												<SimplePredicate field="previous_month_checkouts" operator="lessOrEqual" value="50.0"/>
											</Node>
										</Node>
									</Node>
									<Node score="209.0">
										<SimplePredicate field="total_collection_other" operator="lessOrEqual" value="532.0"/>
										<Node score="326.5">
											<SimplePredicate field="previous_quarter_checkouts" operator="lessOrEqual" value="1279.0"/>
										</Node>
									</Node>
									<Node score="390.3181818181818">
										<SimplePredicate field="previous_quarter_collection_central" operator="lessOrEqual" value="89.0"/>
									</Node>
								</Node>
								<Node score="228.75">
									<SimplePredicate field="current_month_collection_central" operator="lessOrEqual" value="30.0"/>
									<Node score="296.0">
										<SimplePredicate field="previous_quarter_collection_central" operator="lessOrEqual" value="84.0"/>
										<Node score="415.0">
											<SimplePredicate field="number_months_available" operator="lessOrEqual" value="6.0"/>
										</Node>
									</Node>
									<Node score="154.0">
										<SimplePredicate field="total_collection_central" operator="lessOrEqual" value="179.0"/>
									</Node>
								</Node>
								<Node score="388.5">
									<SimplePredicate field="previous_quarter_collection_central" operator="lessOrEqual" value="178.0"/>
									<Node score="437.0">
										<SimplePredicate field="total_collection_central" operator="lessOrEqual" value="162.0"/>
									</Node>
								</Node>
							</Node>
							<Node score="457.2857142857143">
								<SimplePredicate field="previous_quarter_collection_other" operator="lessOrEqual" value="836.0"/>
								<Node score="376.2307692307692">
									<SimplePredicate field="current_month_collection_other" operator="lessOrEqual" value="259.0"/>
									<Node score="435.6666666666667">
										<SimplePredicate field="total_checkouts" operator="lessOrEqual" value="1594.0"/>
										<Node score="413.45454545454544">
											<SimplePredicate field="previous_month_checkouts" operator="lessOrEqual" value="474.0"/>
										</Node>
									</Node>
									<Node score="141.0">
										<SimplePredicate field="total_collection_central" operator="lessOrEqual" value="73.0"/>
									</Node>
								</Node>
								<Node score="471.0">
									<SimplePredicate field="previous_month_collection_central" operator="lessOrEqual" value="29.0"/>
									<Node score="511.0">
										<SimplePredicate field="number_months_available" operator="lessOrEqual" value="2.0"/>
									</Node>
								</Node>
								<Node score="374.3333333333333">
									<SimplePredicate field="previous_month_checkouts" operator="lessOrEqual" value="474.0"/>
								</Node>
							</Node>
							<Node score="445.75">
								<SimplePredicate field="total_checkouts" operator="lessOrEqual" value="2605.0"/>
								<Node score="249.0">
									<SimplePredicate field="previous_quarter_collection_central" operator="lessOrEqual" value="87.0"/>
								</Node>
								<Node score="333.0">
									<SimplePredicate field="previous_month_checkouts" operator="lessOrEqual" value="474.0"/>
								</Node>
							</Node>
							<Node score="107.0">
								<SimplePredicate field="number_months_available" operator="lessOrEqual" value="4.0"/>
							</Node>
							<Node score="195.0">
								<SimplePredicate field="number_months_available" operator="lessOrEqual" value="5.0"/>
							</Node>
						</Node>
						<Node score="676.0">
							<SimplePredicate field="total_collection_other" operator="lessOrEqual" value="1253.0"/>
							<Node score="552.0">
								<SimplePredicate field="current_month_collection_other" operator="lessOrEqual" value="287.0"/>
								<Node score="500.0">
									<SimplePredicate field="total_checkouts" operator="lessOrEqual" value="1498.0"/>
									<Node score="404.0">
										<SimplePredicate field="current_month_collection_central" operator="lessOrEqual" value="27.0"/>
									</Node>
									<Node score="580.0">
										<SimplePredicate field="total_checkouts" operator="lessOrEqual" value="672.0"/>
									</Node>
								</Node>
								<Node score="338.6666666666667">
									<SimplePredicate field="current_month_collection_central" operator="lessOrEqual" value="31.0"/>
									<Node score="448.6666666666667">
										<SimplePredicate field="total_collection_central" operator="lessOrEqual" value="90.0"/>
									</Node>
								</Node>
								<Node score="572.0">
									<SimplePredicate field="number_months_available" operator="lessOrEqual" value="4.0"/>
								</Node>
							</Node>
							<Node score="646.5">
								<SimplePredicate field="total_collection_central" operator="lessOrEqual" value="60.0"/>
								<Node score="519.8333333333334">
									<SimplePredicate field="total_collection_other" operator="lessOrEqual" value="621.0"/>
									<Node score="551.0">
										<SimplePredicate field="previous_month_collection_other" operator="lessOrEqual" value="259.0"/>
									</Node>
								</Node>
								<Node score="575.0">
									<SimplePredicate field="total_checkouts" operator="lessOrEqual" value="1272.0"/>
								</Node>
							</Node>
							<Node score="496.42857142857144">
								<SimplePredicate field="number_months_available" operator="lessOrEqual" value="4.0"/>
								<Node score="429.6666666666667">
									<SimplePredicate field="total_collection_central" operator="lessOrEqual" value="73.0"/>
								</Node>
							</Node>
						</Node>
						<Node score="237.5">
							<SimplePredicate field="total_collection_other" operator="lessOrEqual" value="1740.0"/>
							<Node score="482.0">
								<SimplePredicate field="previous_month_collection_other" operator="lessOrEqual" value="287.0"/>
								<Node score="454.0">
									<SimplePredicate field="number_months_available" operator="lessOrEqual" value="5.0"/>
								</Node>
							</Node>
							<Node score="326.0">
								<SimplePredicate field="previous_quarter_collection_central" operator="lessOrEqual" value="87.0"/>
							</Node>
							<Node score="199.0">
								<SimplePredicate field="number_months_available" operator="lessOrEqual" value="3.0"/>
							</Node>
						</Node>
						<Node score="677.0">
							<SimplePredicate field="number_months_available" operator="lessOrEqual" value="4.0"/>
						</Node>
					</Node>
				</TreeModel>
			</Segment>
			<Segment id="2" weight="0.1">
				<True/>
				<TreeModel functionName="regression" missingValueStrategy="nullPrediction" noTrueChildStrategy="returnLastPrediction">
					<MiningSchema>
						<MiningField name="number_months_available"/>
						<MiningField name="total_checkouts"/>
						<MiningField name="previous_quarter_checkouts"/>
						<MiningField name="previous_month_checkouts"/>
						<MiningField name="current_month_checkouts"/>
						<MiningField name="total_collection_central"/>
						<MiningField name="previous_quarter_collection_central"/>
						<MiningField name="previous_month_collection_central"/>
						<MiningField name="current_month_collection_central"/>
						<MiningField name="total_collection_other"/>
						<MiningField name="previous_quarter_collection_other"/>
						<MiningField name="previous_month_collection_other"/>
						<MiningField name="current_month_collection_other"/>
					</MiningSchema>
					<Node score="216.77777777777771">
						<True/>
						<Node score="-13.977060792704869">
							<SimplePredicate field="current_month_collection_central" operator="lessOrEqual" value="31.0"/>
							<Node score="0.0">
								<SimplePredicate field="previous_quarter_collection_central" operator="lessOrEqual" value="89.0"/>
								<Node score="27.123287671232873">
									<SimplePredicate field="previous_quarter_checkouts" operator="lessOrEqual" value="1080.0"/>
									<Node score="-0.8852314603013269">
										<SimplePredicate field="previous_quarter_collection_central" operator="lessOrEqual" value="84.0"/>
										<Node score="170.69444444444446">
											<SimplePredicate field="previous_month_collection_central" operator="lessOrEqual" value="24.0"/>
											<Node score="-68.42037005351922">
												<SimplePredicate field="current_month_checkouts" operator="lessOrEqual" value="138.0"/>
												<Node score="1.5058222015152998">
													<SimplePredicate field="current_month_collection_other" operator="lessOrEqual" value="184.0"/>
													<Node score="-8.762355932697545">
														<SimplePredicate field="current_month_collection_central" operator="lessOrEqual" value="2.0"/>
													</Node>
												</Node>
												<Node score="-14.75251644554277">
													<SimplePredicate field="total_collection_central" operator="lessOrEqual" value="186.0"/>
												</Node>
											</Node>
											<Node score="-112.66666666666663">
												<SimplePredicate field="previous_quarter_collection_central" operator="lessOrEqual" value="65.0"/>
												<Node score="14.565977760688718">
													<SimplePredicate field="total_checkouts" operator="lessOrEqual" value="1737.0"/>
												</Node>
											</Node>
											<Node score="35.576138147566716">
												<SimplePredicate field="current_month_checkouts" operator="lessOrEqual" value="245.0"/>
											</Node>
										</Node>
										<Node score="-332.27272727272725">
											<SimplePredicate field="total_checkouts" operator="lessOrEqual" value="758.0"/>
											<Node score="-22.132077902314688">
												<SimplePredicate field="current_month_collection_other" operator="lessOrEqual" value="245.0"/>
												<Node score="0.665769415276644">
													<SimplePredicate field="previous_quarter_checkouts" operator="lessOrEqual" value="186.0"/>
												</Node>
											</Node>
											<Node score="-34.41044315161961">
												<SimplePredicate field="previous_month_checkouts" operator="lessOrEqual" value="346.0"/>
											</Node>
										</Node>
										<Node score="-211.16666666666663">
											<SimplePredicate field="previous_month_collection_other" operator="lessOrEqual" value="86.0"/>
											<Node score="-55.16666666666663">
												<SimplePredicate field="total_collection_other" operator="lessOrEqual" value="290.0"/>
											</Node>
										</Node>
										<Node score="24.825452427643302">
											<SimplePredicate field="previous_quarter_collection_other" operator="lessOrEqual" value="382.0"/>
										</Node>
									</Node>
									<Node score="298.7777777777778">
										<SimplePredicate field="number_months_available" operator="lessOrEqual" value="6.0"/>
										<Node score="-80.87671232876716">
											<SimplePredicate field="current_month_checkouts" operator="lessOrEqual" value="245.0"/>
											<Node score="71.74885844748857">
												<SimplePredicate field="current_month_collection_other" operator="lessOrEqual" value="184.0"/>
												<Node score="2.9616937806754304">
													<SimplePredicate field="current_month_collection_other" operator="lessOrEqual" value="171.0"/>
												</Node>
											</Node>
											<Node score="-18.16045075245161">
												<SimplePredicate field="previous_month_collection_other" operator="lessOrEqual" value="287.0"/>
											</Node>
										</Node>
										<Node score="-163.15800106326424">
											<SimplePredicate field="previous_month_checkouts" operator="lessOrEqual" value="376.0"/>
											<Node score="49.01892488099386">
												<SimplePredicate field="previous_quarter_collection_other" operator="lessOrEqual" value="557.0"/>
											</Node>
										</Node>
									</Node>
									<Node score="-84.70732767993043">
										<SimplePredicate field="previous_quarter_checkouts" operator="lessOrEqual" value="988.0"/>
										<Node score="198.77777777777774">
											<SimplePredicate field="total_checkouts" operator="lessOrEqual" value="2353.0"/>
											<Node score="2.062746599157061">
												<SimplePredicate field="current_month_checkouts" operator="lessOrEqual" value="245.0"/>
											</Node>
										</Node>
										<Node score="9.617611315024796">
											<SimplePredicate field="current_month_checkouts" operator="lessOrEqual" value="138.0"/>
										</Node>
									</Node>
									<Node score="291.0">
										<SimplePredicate field="previous_month_checkouts" operator="lessOrEqual" value="376.0"/>
										<Node score="217.0">
											<SimplePredicate field="total_checkouts" operator="lessOrEqual" value="2605.0"/>
										</Node>
									</Node>
									<Node score="27.599999999999994">
										<SimplePredicate field="number_months_available" operator="lessOrEqual" value="7.0"/>
									</Node>
								</Node>
								<Node score="247.0">
									<SimplePredicate field="previous_month_checkouts" operator="lessOrEqual" value="376.0"/>
									<Node score="13.156465517241386">
										<SimplePredicate field="previous_month_collection_central" operator="lessOrEqual" value="29.0"/>
										<Node score="131.72727272727275">
											<SimplePredicate field="current_month_checkouts" operator="lessOrEqual" value="332.0"/>
											<Node score="69.06363636363638">
												<SimplePredicate field="previous_quarter_collection_other" operator="lessOrEqual" value="534.0"/>
												<Node score="16.5">
													<SimplePredicate field="total_collection_central" operator="lessOrEqual" value="58.0"/>
												</Node>
											</Node>
											<Node score="101.72727272727275">
												<SimplePredicate field="total_checkouts" operator="lessOrEqual" value="1095.0"/>
											</Node>
										</Node>
										<Node score="120.26666666666665">
											<SimplePredicate field="previous_month_checkouts" operator="lessOrEqual" value="346.0"/>
										</Node>
										<Node score="-35.0">
											<SimplePredicate field="previous_month_collection_other" operator="lessOrEqual" value="187.0"/>
										</Node>
									</Node>
									<Node score="60.0">
										<SimplePredicate field="previous_quarter_collection_other" operator="lessOrEqual" value="588.0"/>
										<Node score="-13.448275862068954">
											<SimplePredicate field="number_months_available" operator="lessOrEqual" value="3.0"/>
										</Node>
									</Node>
									<Node score="256.61538461538464">
										<SimplePredicate field="previous_month_checkouts" operator="lessOrEqual" value="346.0"/>
									</Node>
									<Node score="237.72727272727275">
										<SimplePredicate field="number_months_available" operator="lessOrEqual" value="4.0"/>
									</Node>
								</Node>
								<Node score="62.72108150470221">
									<SimplePredicate field="current_month_collection_other" operator="lessOrEqual" value="235.0"/>
									<Node score="176.83333333333337">
										<SimplePredicate field="current_month_collection_other" operator="lessOrEqual" value="190.0"/>
										<Node score="56.58333333333337">
											<SimplePredicate field="previous_quarter_checkouts" operator="lessOrEqual" value="1173.0"/>
											<Node score="211.72727272727275">
												<SimplePredicate field="previous_month_checkouts" operator="lessOrEqual" value="437.0"/>
											</Node>
										</Node>
										<Node score="-19.771159874608145">
											<SimplePredicate field="previous_quarter_collection_central" operator="lessOrEqual" value="87.0"/>
										</Node>
									</Node>
									<Node score="1.824242424242442">
										<SimplePredicate field="current_month_collection_central" operator="lessOrEqual" value="29.0"/>
										<Node score="-74.44970931845931">
											<SimplePredicate field="previous_quarter_collection_central" operator="lessOrEqual" value="88.0"/>
										</Node>
									</Node>
									<Node score="-19.249216300940418">
										<SimplePredicate field="previous_quarter_collection_central" operator="lessOrEqual" value="65.0"/>
									</Node>
								</Node>
								<Node score="10.629127161502304">
									<SimplePredicate field="total_collection_central" operator="lessOrEqual" value="199.0"/>
									<Node score="39.020361205799595">
										<SimplePredicate field="previous_month_checkouts" operator="lessOrEqual" value="474.0"/>
										<Node score="298.0">
											<SimplePredicate field="total_collection_other" operator="lessOrEqual" value="532.0"/>
										</Node>
									</Node>
									<Node score="133.36363636363637">
										<SimplePredicate field="current_month_collection_central" operator="lessOrEqual" value="27.0"/>
									</Node>
								</Node>
								<Node score="-127.98076923076923">
									<SimplePredicate field="previous_month_checkouts" operator="lessOrEqual" value="474.0"/>
									<Node score="-29.5">
										<SimplePredicate field="previous_month_checkouts" operator="lessOrEqual" value="437.0"/>
									</Node>
								</Node>
								<Node score="118.66666666666663">
									<SimplePredicate field="previous_quarter_checkouts" operator="lessOrEqual" value="1448.0"/>
								</Node>
							</Node>
							<Node score="64.28030303030306">
								<SimplePredicate field="previous_month_collection_other" operator="lessOrEqual" value="193.0"/>
								<Node score="-80.87671232876713">
									<SimplePredicate field="current_month_checkouts" operator="lessOrEqual" value="183.0"/>
									<Node score="-156.5">
										<SimplePredicate field="total_collection_other" operator="lessOrEqual" value="290.0"/>
										<Node score="-140.0625">
											<SimplePredicate field="number_months_available" operator="lessOrEqual" value="3.0"/>
										</Node>
									</Node>
									<Node score="64.80794032356532">
										<SimplePredicate field="previous_quarter_checkouts" operator="lessOrEqual" value="705.0"/>
										<Node score="0.37863601955958376">
											<SimplePredicate field="current_month_checkouts" operator="lessOrEqual" value="138.0"/>
											<Node score="-29.976633892423372">
												<SimplePredicate field="total_collection_central" operator="lessOrEqual" value="214.0"/>
											</Node>
										</Node>
										<Node score="-29.142361111111114">
											<SimplePredicate field="previous_quarter_collection_other" operator="lessOrEqual" value="317.0"/>
										</Node>
									</Node>
									<Node score="-28.15789473684211">
										<SimplePredicate field="number_months_available" operator="lessOrEqual" value="6.0"/>
										<Node score="-36.87671232876713">
											<SimplePredicate field="number_months_available" operator="lessOrEqual" value="4.0"/>
										</Node>
									</Node>
								</Node>
								<Node score="-38.27272727272725">
									<SimplePredicate field="previous_month_checkouts" operator="lessOrEqual" value="275.0"/>
									<Node score="-12.0">
										<SimplePredicate field="previous_quarter_checkouts" operator="lessOrEqual" value="800.0"/>
										<Node score="83.47058823529414">
											<SimplePredicate field="previous_quarter_collection_other" operator="lessOrEqual" value="493.0"/>
											<Node score="108.77777777777777">
												<SimplePredicate field="previous_quarter_collection_other" operator="lessOrEqual" value="317.0"/>
											</Node>
										</Node>
									</Node>
									<Node score="-65.22222222222223">
										<SimplePredicate field="total_checkouts" operator="lessOrEqual" value="1095.0"/>
									</Node>
								</Node>
								<Node score="29.123287671232873">
									<SimplePredicate field="current_month_checkouts" operator="lessOrEqual" value="245.0"/>
									<Node score="0.0">
										<SimplePredicate field="number_months_available" operator="lessOrEqual" value="3.0"/>
									</Node>
								</Node>
								<Node score="236.77777777777777">
									<SimplePredicate field="total_checkouts" operator="lessOrEqual" value="914.0"/>
								</Node>
								<Node score="116.9724254034599">
									<SimplePredicate field="previous_quarter_collection_central" operator="lessOrEqual" value="90.0"/>
								</Node>
							</Node>
							<Node score="-73.16414141414141">
								<SimplePredicate field="previous_quarter_collection_other" operator="lessOrEqual" value="614.0"/>
								<Node score="143.1232876712329">
									<SimplePredicate field="current_month_checkouts" operator="lessOrEqual" value="245.0"/>
									<Node score="249.1232876712329">
										<SimplePredicate field="total_collection_other" operator="lessOrEqual" value="734.0"/>
										<Node score="-4.876712328767127">
											<SimplePredicate field="number_months_available" operator="lessOrEqual" value="3.0"/>
										</Node>
										<Node score="177.75824175824175">
											<SimplePredicate field="total_checkouts" operator="lessOrEqual" value="508.0"/>
										</Node>
									</Node>
									<Node score="-21.871879726499547">
										<SimplePredicate field="previous_quarter_checkouts" operator="lessOrEqual" value="886.0"/>
										<Node score="-75.80606060606061">
											<SimplePredicate field="previous_month_collection_central" operator="lessOrEqual" value="29.0"/>
										</Node>
									</Node>
								</Node>
								<Node score="-103.16666666666652">
									<SimplePredicate field="total_checkouts" operator="lessOrEqual" value="1187.0"/>
									<Node score="116.77777777777777">
										<SimplePredicate field="current_month_checkouts" operator="lessOrEqual" value="294.0"/>
										<Node score="-21.599999999999994">
											<SimplePredicate field="number_months_available" operator="lessOrEqual" value="3.0"/>
										</Node>
									</Node>
									<Node score="-409.33124346917447">
										<SimplePredicate field="current_month_checkouts" operator="lessOrEqual" value="370.0"/>
									</Node>
								</Node>
								<Node score="262.0">
									<SimplePredicate field="total_collection_central" operator="lessOrEqual" value="116.0"/>
									<Node score="-18.39114676173498">
										<SimplePredicate field="total_checkouts" operator="lessOrEqual" value="1373.0"/>
									</Node>
								</Node>
								<Node score="-228.69898989898988">
									<SimplePredicate field="previous_quarter_collection_other" operator="lessOrEqual" value="588.0"/>
								</Node>
							</Node>
							<Node score="-149.0">
								<SimplePredicate field="previous_quarter_collection_other" operator="lessOrEqual" value="676.0"/>
								<Node score="298.0">
									<SimplePredicate field="total_checkouts" operator="lessOrEqual" value="2974.0"/>
									<Node score="123.37017231134887">
										<SimplePredicate field="total_checkouts" operator="lessOrEqual" value="2353.0"/>
										<Node score="17.46865112215606">
											<SimplePredicate field="current_month_collection_other" operator="lessOrEqual" value="235.0"/>
										</Node>
									</Node>
									<Node score="7.123287671232873">
										<SimplePredicate field="previous_quarter_checkouts" operator="lessOrEqual" value="886.0"/>
									</Node>
								</Node>
							</Node>
							<Node score="77.75824175824175">
								<SimplePredicate field="current_month_checkouts" operator="lessOrEqual" value="183.0"/>
								<Node score="6.938607924657526">
									<SimplePredicate field="previous_quarter_collection_central" operator="lessOrEqual" value="96.0"/>
									<Node score="-18.19289066463724">
										<SimplePredicate field="number_months_available" operator="lessOrEqual" value="5.0"/>
									</Node>
								</Node>
							</Node>
							<Node score="-54.13757383813941">
								<SimplePredicate field="previous_month_checkouts" operator="lessOrEqual" value="474.0"/>
								<Node score="-350.42857142857144">
									<SimplePredicate field="previous_month_collection_other" operator="lessOrEqual" value="225.0"/>
								</Node>
							</Node>
							<Node score="72.07843137254902">
								<SimplePredicate field="previous_quarter_collection_other" operator="lessOrEqual" value="708.0"/>
							</Node>
						</Node>
						<Node score="-182.24175824175825">
							<SimplePredicate field="previous_month_checkouts" operator="lessOrEqual" value="134.0"/>
							<Node score="153.75824175824175">
								<SimplePredicate field="previous_quarter_collection_central" operator="lessOrEqual" value="65.0"/>
							</Node>
							<Node score="-94.24175824175825">
								<SimplePredicate field="previous_month_collection_other" operator="lessOrEqual" value="215.0"/>
								<Node score="-24.80882450882451">
									<SimplePredicate field="current_month_collection_other" operator="lessOrEqual" value="195.0"/>
									<Node score="-108.58181818181822">
										<SimplePredicate field="total_checkouts" operator="lessOrEqual" value="451.0"/>
										<Node score="-56.50887216110147">
											<SimplePredicate field="previous_month_checkouts" operator="lessOrEqual" value="50.0"/>
											<Node score="-0.019327515663754517">
												<SimplePredicate field="previous_month_checkouts" operator="lessOrEqual" value="38.0"/>
											</Node>
										</Node>
										<Node score="29.418815757937445">
											<SimplePredicate field="number_months_available" operator="lessOrEqual" value="4.0"/>
										</Node>
									</Node>
									<Node score="64.0">
										<SimplePredicate field="number_months_available" operator="lessOrEqual" value="3.0"/>
									</Node>
									<Node score="-116.52087912087913">
										<SimplePredicate field="total_collection_other" operator="lessOrEqual" value="780.0"/>
									</Node>
								</Node>
								<Node score="189.2">
									<SimplePredicate field="previous_quarter_collection_other" operator="lessOrEqual" value="225.0"/>
								</Node>
								<Node score="52.38950140768322">
									<SimplePredicate field="previous_month_collection_central" operator="lessOrEqual" value="66.0"/>
									<Node score="0.17373572774586066">
										<SimplePredicate field="current_month_checkouts" operator="lessOrEqual" value="24.0"/>
									</Node>
								</Node>
								<Node score="-30.241758241758248">
									<SimplePredicate field="number_months_available" operator="lessOrEqual" value="3.0"/>
								</Node>
							</Node>
							<Node score="-80.58181818181819">
								<SimplePredicate field="number_months_available" operator="lessOrEqual" value="7.0"/>
								<Node score="0.0">
									<SimplePredicate field="total_checkouts" operator="lessOrEqual" value="285.0"/>
									<Node score="-0.7999999999999972">
										<SimplePredicate field="number_months_available" operator="lessOrEqual" value="6.0"/>
									</Node>
								</Node>
							</Node>
						</Node>
						<Node score="-18.72448979591838">
							<SimplePredicate field="previous_month_collection_central" operator="lessOrEqual" value="66.0"/>
							<Node score="0.0">
								<SimplePredicate field="total_collection_other" operator="lessOrEqual" value="1065.0"/>
								<Node score="67.53846153846155">
									<SimplePredicate field="previous_quarter_collection_other" operator="lessOrEqual" value="752.0"/>
									<Node score="148.47058823529414">
										<SimplePredicate field="total_collection_central" operator="lessOrEqual" value="162.0"/>
										<Node score="12.840752794483292">
											<SimplePredicate field="current_month_collection_other" operator="lessOrEqual" value="287.0"/>
											<Node score="71.66806051091767">
												<SimplePredicate field="total_collection_other" operator="lessOrEqual" value="438.0"/>
											</Node>
										</Node>
										<Node score="160.66666666666663">
											<SimplePredicate field="number_months_available" operator="lessOrEqual" value="2.0"/>
										</Node>
									</Node>
									<Node score="96.1834701246466">
										<SimplePredicate field="previous_month_collection_other" operator="lessOrEqual" value="195.0"/>
										<Node score="-14.25724275724275">
											<SimplePredicate field="total_collection_central" operator="lessOrEqual" value="214.0"/>
										</Node>
									</Node>
									<Node score="145.64835164835165">
										<SimplePredicate field="total_collection_other" operator="lessOrEqual" value="949.0"/>
									</Node>
								</Node>
								<Node score="-207.33333333333337">
									<SimplePredicate field="number_months_available" operator="lessOrEqual" value="2.0"/>
								</Node>
							</Node>
							<Node score="-213.52941176470588">
								<SimplePredicate field="total_collection_other" operator="lessOrEqual" value="1126.0"/>
								<Node score="-94.58181818181819">
									<SimplePredicate field="previous_quarter_collection_central" operator="lessOrEqual" value="125.0"/>
									<Node score="0.0">
										<SimplePredicate field="number_months_available" operator="lessOrEqual" value="5.0"/>
									</Node>
								</Node>
							</Node>
							<Node score="1.4166666666666679">
								<SimplePredicate field="total_collection_other" operator="lessOrEqual" value="1437.0"/>
								<Node score="-51.84312289018171">
									<SimplePredicate field="previous_quarter_checkouts" operator="lessOrEqual" value="1279.0"/>
									<Node score="0.0">
										<SimplePredicate field="current_month_checkouts" operator="lessOrEqual" value="110.0"/>
									</Node>
								</Node>
								<Node score="22.5">
									<SimplePredicate field="previous_month_collection_central" operator="lessOrEqual" value="31.0"/>
								</Node>
							</Node>
							<Node score="37.04649232046492">
								<SimplePredicate field="current_month_checkouts" operator="lessOrEqual" value="332.0"/>
								<Node score="87.83149346847975">
									<SimplePredicate field="total_collection_central" operator="lessOrEqual" value="335.0"/>
								</Node>
							</Node>
							<Node score="111.0">
								<SimplePredicate field="previous_quarter_collection_other" operator="lessOrEqual" value="752.0"/>
							</Node>
						</Node>
						<Node score="138.77777777777774">
							<SimplePredicate field="number_months_available" operator="lessOrEqual" value="5.0"/>
							<Node score="112.47058823529414">
								<SimplePredicate field="number_months_available" operator="lessOrEqual" value="4.0"/>
								<Node score="122.96969696969697">
									<SimplePredicate field="number_months_available" operator="lessOrEqual" value="3.0"/>
								</Node>
							</Node>
						</Node>
					</Node>
				</TreeModel>
			</Segment>
			<Segment id="3" weight="0.1">
				<True/>
				<TreeModel functionName="regression" missingValueStrategy="nullPrediction" noTrueChildStrategy="returnLastPrediction">
					<MiningSchema>
						<MiningField name="number_months_available"/>
						<MiningField name="total_checkouts"/>
						<MiningField name="previous_quarter_checkouts"/>
						<MiningField name="previous_month_checkouts"/>
						<MiningField name="current_month_checkouts"/>
						<MiningField name="total_collection_central"/>
						<MiningField name="previous_quarter_collection_central"/>
						<MiningField name="previous_month_collection_central"/>
						<MiningField name="current_month_collection_central"/>
						<MiningField name="total_collection_other"/>
						<MiningField name="previous_quarter_collection_other"/>
						<MiningField name="previous_month_collection_other"/>
						<MiningField name="current_month_collection_other"/>
					</MiningSchema>
					<Node score="173.42222222222222">
						<True/>
						<Node score="-8.706642967741306">
							<SimplePredicate field="previous_month_collection_central" operator="lessOrEqual" value="31.0"/>
							<Node score="-165.8666666666668">
								<SimplePredicate field="previous_quarter_collection_central" operator="lessOrEqual" value="89.0"/>
								<Node score="-274.5906220095694">
									<SimplePredicate field="previous_quarter_checkouts" operator="lessOrEqual" value="1080.0"/>
									<Node score="-3.9848172255632335">
										<SimplePredicate field="previous_quarter_collection_central" operator="lessOrEqual" value="84.0"/>
										<Node score="-1.4610052868022558">
											<SimplePredicate field="current_month_collection_central" operator="lessOrEqual" value="31.0"/>
											<Node score="1.8153044693518439">
												<SimplePredicate field="previous_quarter_checkouts" operator="lessOrEqual" value="705.0"/>
												<Node score="-14.94006782767797">
													<SimplePredicate field="previous_month_checkouts" operator="lessOrEqual" value="376.0"/>
													<Node score="0.22242823187706143">
														<SimplePredicate field="previous_quarter_collection_other" operator="lessOrEqual" value="614.0"/>
													</Node>
												</Node>
												<Node score="-248.58469553064816">
													<SimplePredicate field="previous_month_checkouts" operator="lessOrEqual" value="405.0"/>
												</Node>
											</Node>
											<Node score="-93.82782424969365">
												<SimplePredicate field="number_months_available" operator="lessOrEqual" value="2.0"/>
												<Node score="2.7220487237593947">
													<SimplePredicate field="previous_month_collection_other" operator="lessOrEqual" value="225.0"/>
												</Node>
											</Node>
											<Node score="36.68662284091928">
												<SimplePredicate field="previous_quarter_collection_central" operator="lessOrEqual" value="77.0"/>
											</Node>
										</Node>
										<Node score="72.4997212311498">
											<SimplePredicate field="current_month_collection_other" operator="lessOrEqual" value="215.0"/>
											<Node score="123.00659340659342">
												<SimplePredicate field="current_month_collection_other" operator="lessOrEqual" value="171.0"/>
											</Node>
											<Node score="95.4997212311498">
												<SimplePredicate field="number_months_available" operator="lessOrEqual" value="2.0"/>
											</Node>
										</Node>
										<Node score="-10.477900281536677">
											<SimplePredicate field="total_checkouts" operator="lessOrEqual" value="672.0"/>
										</Node>
										<Node score="-4.568150558896605">
											<SimplePredicate field="number_months_available" operator="lessOrEqual" value="2.0"/>
										</Node>
									</Node>
									<Node score="21.889315068493147">
										<SimplePredicate field="current_month_collection_central" operator="lessOrEqual" value="30.0"/>
										<Node score="239.02222222222213">
											<SimplePredicate field="number_months_available" operator="lessOrEqual" value="6.0"/>
											<Node score="-18.7850039306069">
												<SimplePredicate field="current_month_checkouts" operator="lessOrEqual" value="245.0"/>
												<Node score="10.058817445185989">
													<SimplePredicate field="previous_month_collection_other" operator="lessOrEqual" value="193.0"/>
												</Node>
											</Node>
											<Node score="-99.41740830655529">
												<SimplePredicate field="previous_month_checkouts" operator="lessOrEqual" value="376.0"/>
											</Node>
										</Node>
										<Node score="-21.651447524188455">
											<SimplePredicate field="previous_quarter_checkouts" operator="lessOrEqual" value="988.0"/>
											<Node score="15.956745001407157">
												<SimplePredicate field="total_checkouts" operator="lessOrEqual" value="2353.0"/>
											</Node>
										</Node>
										<Node score="203.20000000000002">
											<SimplePredicate field="previous_month_checkouts" operator="lessOrEqual" value="376.0"/>
										</Node>
									</Node>
								</Node>
								<Node score="197.60000000000002">
									<SimplePredicate field="previous_month_checkouts" operator="lessOrEqual" value="376.0"/>
									<Node score="10.52517241379315">
										<SimplePredicate field="previous_month_collection_central" operator="lessOrEqual" value="29.0"/>
										<Node score="105.38181818181818">
											<SimplePredicate field="current_month_checkouts" operator="lessOrEqual" value="332.0"/>
											<Node score="13.200000000000003">
												<SimplePredicate field="previous_quarter_collection_other" operator="lessOrEqual" value="534.0"/>
												<Node score="55.250909090909076">
													<SimplePredicate field="previous_month_collection_other" operator="lessOrEqual" value="187.0"/>
												</Node>
											</Node>
											<Node score="81.38181818181818">
												<SimplePredicate field="total_checkouts" operator="lessOrEqual" value="1095.0"/>
											</Node>
										</Node>
										<Node score="96.21333333333337">
											<SimplePredicate field="previous_month_checkouts" operator="lessOrEqual" value="346.0"/>
										</Node>
										<Node score="-28.0">
											<SimplePredicate field="previous_month_collection_other" operator="lessOrEqual" value="187.0"/>
										</Node>
									</Node>
									<Node score="48.0">
										<SimplePredicate field="previous_quarter_collection_other" operator="lessOrEqual" value="588.0"/>
										<Node score="-10.758620689655118">
											<SimplePredicate field="number_months_available" operator="lessOrEqual" value="3.0"/>
										</Node>
									</Node>
									<Node score="205.2923076923077">
										<SimplePredicate field="previous_month_checkouts" operator="lessOrEqual" value="346.0"/>
									</Node>
									<Node score="190.18181818181824">
										<SimplePredicate field="number_months_available" operator="lessOrEqual" value="4.0"/>
									</Node>
								</Node>
								<Node score="31.644444444444428">
									<SimplePredicate field="current_month_collection_central" operator="lessOrEqual" value="31.0"/>
									<Node score="21.03187042842218">
										<SimplePredicate field="current_month_collection_other" operator="lessOrEqual" value="235.0"/>
										<Node score="15.639791013584135">
											<SimplePredicate field="current_month_collection_other" operator="lessOrEqual" value="190.0"/>
											<Node score="128.010101010101">
												<SimplePredicate field="previous_quarter_checkouts" operator="lessOrEqual" value="1173.0"/>
											</Node>
										</Node>
										<Node score="-44.304977106227085">
											<SimplePredicate field="current_month_collection_central" operator="lessOrEqual" value="29.0"/>
										</Node>
									</Node>
									<Node score="10.061835179387712">
										<SimplePredicate field="total_collection_central" operator="lessOrEqual" value="214.0"/>
										<Node score="35.49814529870056">
											<SimplePredicate field="previous_month_checkouts" operator="lessOrEqual" value="474.0"/>
										</Node>
									</Node>
									<Node score="-93.03461538461539">
										<SimplePredicate field="previous_month_checkouts" operator="lessOrEqual" value="474.0"/>
									</Node>
								</Node>
							</Node>
							<Node score="106.605514919308">
								<SimplePredicate field="previous_month_collection_other" operator="lessOrEqual" value="193.0"/>
								<Node score="70.81618971306472">
									<SimplePredicate field="current_month_checkouts" operator="lessOrEqual" value="245.0"/>
									<Node score="-112.05000000000001">
										<SimplePredicate field="total_collection_other" operator="lessOrEqual" value="245.0"/>
									</Node>
									<Node score="0.0">
										<SimplePredicate field="total_collection_other" operator="lessOrEqual" value="578.0"/>
										<Node score="-38.23402777777778">
											<SimplePredicate field="previous_quarter_collection_other" operator="lessOrEqual" value="317.0"/>
											<Node score="-1.4944788616962228">
												<SimplePredicate field="total_checkouts" operator="lessOrEqual" value="672.0"/>
											</Node>
										</Node>
										<Node score="42.942408371603655">
											<SimplePredicate field="previous_month_checkouts" operator="lessOrEqual" value="275.0"/>
										</Node>
									</Node>
									<Node score="-18.003215917308303">
										<SimplePredicate field="total_collection_central" operator="lessOrEqual" value="237.0"/>
										<Node score="-52.16885391507784">
											<SimplePredicate field="total_checkouts" operator="lessOrEqual" value="1016.0"/>
										</Node>
									</Node>
									<Node score="3.8065415689818525">
										<SimplePredicate field="previous_quarter_checkouts" operator="lessOrEqual" value="602.0"/>
									</Node>
								</Node>
								<Node score="127.15723905723905">
									<SimplePredicate field="number_months_available" operator="lessOrEqual" value="3.0"/>
									<Node score="189.42222222222222">
										<SimplePredicate field="total_checkouts" operator="lessOrEqual" value="914.0"/>
									</Node>
								</Node>
								<Node score="34.332787646580755">
									<SimplePredicate field="total_collection_other" operator="lessOrEqual" value="621.0"/>
									<Node score="87.02222222222224">
										<SimplePredicate field="total_collection_other" operator="lessOrEqual" value="336.0"/>
									</Node>
									<Node score="-41.397979797979815">
										<SimplePredicate field="total_checkouts" operator="lessOrEqual" value="1187.0"/>
									</Node>
								</Node>
								<Node score="141.38329269708578">
									<SimplePredicate field="previous_quarter_checkouts" operator="lessOrEqual" value="988.0"/>
									<Node score="98.79645995798344">
										<SimplePredicate field="previous_quarter_checkouts" operator="lessOrEqual" value="886.0"/>
									</Node>
								</Node>
								<Node score="66.73836352026007">
									<SimplePredicate field="total_checkouts" operator="lessOrEqual" value="1871.0"/>
								</Node>
							</Node>
							<Node score="-63.88069985569986">
								<SimplePredicate field="previous_quarter_collection_other" operator="lessOrEqual" value="614.0"/>
								<Node score="114.49863013698632">
									<SimplePredicate field="current_month_checkouts" operator="lessOrEqual" value="245.0"/>
									<Node score="-53.869090909090914">
										<SimplePredicate field="current_month_checkouts" operator="lessOrEqual" value="183.0"/>
										<Node score="-27.095772083501657">
											<SimplePredicate field="number_months_available" operator="lessOrEqual" value="5.0"/>
											<Node score="-60.336207703364245">
												<SimplePredicate field="previous_month_collection_other" operator="lessOrEqual" value="195.0"/>
											</Node>
										</Node>
										<Node score="0.4796391031946385">
											<SimplePredicate field="total_collection_central" operator="lessOrEqual" value="265.0"/>
										</Node>
									</Node>
									<Node score="-1.625624054700097">
										<SimplePredicate field="previous_quarter_checkouts" operator="lessOrEqual" value="886.0"/>
									</Node>
									<Node score="199.29863013698628">
										<SimplePredicate field="number_months_available" operator="lessOrEqual" value="4.0"/>
									</Node>
								</Node>
								<Node score="-381.99425287356325">
									<SimplePredicate field="total_checkouts" operator="lessOrEqual" value="1187.0"/>
									<Node score="93.42222222222222">
										<SimplePredicate field="current_month_checkouts" operator="lessOrEqual" value="294.0"/>
										<Node score="-17.28">
											<SimplePredicate field="number_months_available" operator="lessOrEqual" value="3.0"/>
										</Node>
									</Node>
									<Node score="-150.46990595611283">
										<SimplePredicate field="previous_month_collection_other" operator="lessOrEqual" value="201.0"/>
									</Node>
								</Node>
								<Node score="209.60000000000002">
									<SimplePredicate field="total_collection_central" operator="lessOrEqual" value="116.0"/>
									<Node score="-14.71291740938799">
										<SimplePredicate field="total_checkouts" operator="lessOrEqual" value="1373.0"/>
									</Node>
								</Node>
								<Node score="-182.95919191919194">
									<SimplePredicate field="previous_quarter_collection_other" operator="lessOrEqual" value="588.0"/>
								</Node>
							</Node>
							<Node score="-119.20000000000005">
								<SimplePredicate field="previous_quarter_collection_other" operator="lessOrEqual" value="676.0"/>
								<Node score="-19.267168294632874">
									<SimplePredicate field="current_month_checkouts" operator="lessOrEqual" value="294.0"/>
									<Node score="141.28404755334657">
										<SimplePredicate field="total_collection_central" operator="lessOrEqual" value="90.0"/>
									</Node>
									<Node score="85.4568025000741">
										<SimplePredicate field="current_month_collection_central" operator="lessOrEqual" value="29.0"/>
									</Node>
								</Node>
								<Node score="-150.68603791673888">
									<SimplePredicate field="number_months_available" operator="lessOrEqual" value="5.0"/>
									<Node score="30.21892236086837">
										<SimplePredicate field="total_checkouts" operator="lessOrEqual" value="1983.0"/>
									</Node>
								</Node>
								<Node score="275.4354232585229">
									<SimplePredicate field="total_collection_central" operator="lessOrEqual" value="186.0"/>
								</Node>
							</Node>
							<Node score="32.443064243835565">
								<SimplePredicate field="current_month_checkouts" operator="lessOrEqual" value="183.0"/>
								<Node score="-77.23813419583968">
									<SimplePredicate field="number_months_available" operator="lessOrEqual" value="5.0"/>
									<Node score="3.3553508008987456">
										<SimplePredicate field="total_checkouts" operator="lessOrEqual" value="1871.0"/>
									</Node>
								</Node>
								<Node score="-0.8137415442922366">
									<SimplePredicate field="current_month_checkouts" operator="lessOrEqual" value="49.0"/>
								</Node>
							</Node>
							<Node score="14.699824881922968">
								<SimplePredicate field="current_month_collection_other" operator="lessOrEqual" value="259.0"/>
								<Node score="-67.09135625645818">
									<SimplePredicate field="previous_quarter_collection_central" operator="lessOrEqual" value="90.0"/>
								</Node>
							</Node>
							<Node score="128.93776210167948">
								<SimplePredicate field="previous_quarter_collection_other" operator="lessOrEqual" value="752.0"/>
							</Node>
						</Node>
						<Node score="-48.85359764418587">
							<SimplePredicate field="current_month_collection_other" operator="lessOrEqual" value="195.0"/>
							<Node score="-145.7934065934066">
								<SimplePredicate field="previous_month_checkouts" operator="lessOrEqual" value="134.0"/>
								<Node score="85.87447860665424">
									<SimplePredicate field="total_checkouts" operator="lessOrEqual" value="338.0"/>
									<Node score="-71.28004374959791">
										<SimplePredicate field="previous_month_checkouts" operator="lessOrEqual" value="50.0"/>
										<Node score="-44.237892738625476">
											<SimplePredicate field="previous_month_checkouts" operator="lessOrEqual" value="38.0"/>
											<Node score="23.476592775860013">
												<SimplePredicate field="current_month_checkouts" operator="lessOrEqual" value="110.0"/>
												<Node score="-0.14717222747827877">
													<SimplePredicate field="previous_quarter_checkouts" operator="lessOrEqual" value="86.0"/>
												</Node>
											</Node>
										</Node>
										<Node score="-39.309690535932575">
											<SimplePredicate field="current_month_checkouts" operator="lessOrEqual" value="65.0"/>
											<Node score="-25.031558901113044">
												<SimplePredicate field="number_months_available" operator="lessOrEqual" value="2.0"/>
											</Node>
										</Node>
									</Node>
									<Node score="60.55887983882619">
										<SimplePredicate field="current_month_checkouts" operator="lessOrEqual" value="77.0"/>
										<Node score="141.08593381810948">
											<SimplePredicate field="number_months_available" operator="lessOrEqual" value="3.0"/>
										</Node>
										<Node score="21.08593381810948">
											<SimplePredicate field="previous_month_checkouts" operator="lessOrEqual" value="89.0"/>
										</Node>
									</Node>
									<Node score="-14.734430479814336">
										<SimplePredicate field="current_month_collection_central" operator="lessOrEqual" value="64.0"/>
										<Node score="49.53441866659432">
											<SimplePredicate field="previous_quarter_checkouts" operator="lessOrEqual" value="168.0"/>
										</Node>
									</Node>
								</Node>
								<Node score="51.19999999999999">
									<SimplePredicate field="number_months_available" operator="lessOrEqual" value="4.0"/>
									<Node score="49.874478606654236">
										<SimplePredicate field="total_checkouts" operator="lessOrEqual" value="451.0"/>
										<Node score="3.874478606654236">
											<SimplePredicate field="previous_quarter_collection_other" operator="lessOrEqual" value="557.0"/>
											<Node score="-9.404642272466631">
												<SimplePredicate field="previous_month_checkouts" operator="lessOrEqual" value="106.0"/>
											</Node>
										</Node>
									</Node>
								</Node>
								<Node score="-125.19999999999999">
									<SimplePredicate field="total_collection_other" operator="lessOrEqual" value="780.0"/>
									<Node score="-83.49582417582417">
										<SimplePredicate field="number_months_available" operator="lessOrEqual" value="6.0"/>
										<Node score="-101.77073493371125">
											<SimplePredicate field="number_months_available" operator="lessOrEqual" value="5.0"/>
										</Node>
									</Node>
								</Node>
								<Node score="-50.49091908091908">
									<SimplePredicate field="current_month_collection_central" operator="lessOrEqual" value="42.0"/>
									<Node score="-2.1532314900254814">
										<SimplePredicate field="current_month_checkouts" operator="lessOrEqual" value="77.0"/>
									</Node>
								</Node>
							</Node>
							<Node score="16.360101010101005">
								<SimplePredicate field="total_collection_central" operator="lessOrEqual" value="265.0"/>
								<Node score="137.54108375284846">
									<SimplePredicate field="current_month_checkouts" operator="lessOrEqual" value="294.0"/>
									<Node score="98.37575757575758">
										<SimplePredicate field="current_month_collection_other" operator="lessOrEqual" value="184.0"/>
										<Node score="72.65022831050229">
											<SimplePredicate field="previous_month_collection_central" operator="lessOrEqual" value="66.0"/>
											<Node score="8.1618393835675">
												<SimplePredicate field="previous_month_checkouts" operator="lessOrEqual" value="226.0"/>
											</Node>
										</Node>
									</Node>
									<Node score="89.4853829028653">
										<SimplePredicate field="number_months_available" operator="lessOrEqual" value="4.0"/>
										<Node score="67.42462965605824">
											<SimplePredicate field="previous_quarter_collection_other" operator="lessOrEqual" value="353.0"/>
										</Node>
									</Node>
								</Node>
								<Node score="-2.5681505588966047">
									<SimplePredicate field="number_months_available" operator="lessOrEqual" value="7.0"/>
									<Node score="-14.333612102183537">
										<SimplePredicate field="previous_month_checkouts" operator="lessOrEqual" value="376.0"/>
										<Node score="-7.421278721278668">
											<SimplePredicate field="previous_month_checkouts" operator="lessOrEqual" value="346.0"/>
										</Node>
									</Node>
									<Node score="0.2651827744367665">
										<SimplePredicate field="number_months_available" operator="lessOrEqual" value="5.0"/>
									</Node>
								</Node>
							</Node>
							<Node score="11.560398505603985">
								<SimplePredicate field="current_month_checkouts" operator="lessOrEqual" value="77.0"/>
							</Node>
							<Node score="-75.66545454545457">
								<SimplePredicate field="previous_quarter_checkouts" operator="lessOrEqual" value="705.0"/>
								<Node score="-63.853597644185896">
									<SimplePredicate field="previous_quarter_collection_other" operator="lessOrEqual" value="557.0"/>
								</Node>
							</Node>
						</Node>
						<Node score="98.40879120879117">
							<SimplePredicate field="total_collection_other" operator="lessOrEqual" value="1065.0"/>
							<Node score="122.40879120879117">
								<SimplePredicate field="current_month_collection_other" operator="lessOrEqual" value="245.0"/>
								<Node score="30.098516107770024">
									<SimplePredicate field="previous_quarter_collection_other" operator="lessOrEqual" value="636.0"/>
									<Node score="47.15084115639638">
										<SimplePredicate field="current_month_collection_other" operator="lessOrEqual" value="215.0"/>
										<Node score="151.35999999999999">
											<SimplePredicate field="total_collection_other" operator="lessOrEqual" value="245.0"/>
										</Node>
										<Node score="5.434680311158986">
											<SimplePredicate field="total_collection_central" operator="lessOrEqual" value="162.0"/>
										</Node>
									</Node>
									<Node score="-5.867382296458345">
										<SimplePredicate field="number_months_available" operator="lessOrEqual" value="5.0"/>
										<Node score="-83.14626620676357">
											<SimplePredicate field="total_collection_other" operator="lessOrEqual" value="734.0"/>
										</Node>
									</Node>
									<Node score="3.945927758840071">
										<SimplePredicate field="previous_quarter_checkouts" operator="lessOrEqual" value="1173.0"/>
									</Node>
								</Node>
								<Node score="-64.46545454545455">
									<SimplePredicate field="total_checkouts" operator="lessOrEqual" value="451.0"/>
								</Node>
								<Node score="202.0776983469973">
									<SimplePredicate field="previous_quarter_checkouts" operator="lessOrEqual" value="1279.0"/>
									<Node score="96.44654148119099">
										<SimplePredicate field="total_checkouts" operator="lessOrEqual" value="839.0"/>
									</Node>
								</Node>
								<Node score="28.980719231799906">
									<SimplePredicate field="previous_month_checkouts" operator="lessOrEqual" value="522.0"/>
								</Node>
							</Node>
							<Node score="-16.766105789635162">
								<SimplePredicate field="previous_month_collection_other" operator="lessOrEqual" value="195.0"/>
								<Node score="89.97647058823532">
									<SimplePredicate field="number_months_available" operator="lessOrEqual" value="4.0"/>
									<Node score="98.49057870234344">
										<SimplePredicate field="total_collection_central" operator="lessOrEqual" value="237.0"/>
									</Node>
								</Node>
							</Node>
							<Node score="77.19009119934509">
								<SimplePredicate field="total_checkouts" operator="lessOrEqual" value="758.0"/>
							</Node>
							<Node score="118.77647058823533">
								<SimplePredicate field="total_collection_central" operator="lessOrEqual" value="171.0"/>
								<Node score="132.58095238095237">
									<SimplePredicate field="total_collection_other" operator="lessOrEqual" value="949.0"/>
								</Node>
							</Node>
							<Node score="111.02222222222224">
								<SimplePredicate field="number_months_available" operator="lessOrEqual" value="5.0"/>
							</Node>
						</Node>
						<Node score="68.52244897959184">
							<SimplePredicate field="previous_month_collection_central" operator="lessOrEqual" value="66.0"/>
							<Node score="4.3583333333333485">
								<SimplePredicate field="total_collection_other" operator="lessOrEqual" value="1437.0"/>
								<Node score="0.8392236494476464">
									<SimplePredicate field="previous_quarter_collection_central" operator="lessOrEqual" value="125.0"/>
									<Node score="0.0">
										<SimplePredicate field="total_collection_other" operator="lessOrEqual" value="1126.0"/>
										<Node score="50.501623550061055">
											<SimplePredicate field="total_checkouts" operator="lessOrEqual" value="914.0"/>
										</Node>
									</Node>
									<Node score="-25.338375392875417">
										<SimplePredicate field="current_month_collection_central" operator="lessOrEqual" value="30.0"/>
									</Node>
								</Node>
								<Node score="-32.642481952179025">
									<SimplePredicate field="total_collection_other" operator="lessOrEqual" value="1126.0"/>
									<Node score="-170.8235294117647">
										<SimplePredicate field="total_collection_central" operator="lessOrEqual" value="335.0"/>
									</Node>
								</Node>
								<Node score="-25.77241806124159">
									<SimplePredicate field="number_months_available" operator="lessOrEqual" value="6.0"/>
								</Node>
							</Node>
							<Node score="75.11708888814243">
								<SimplePredicate field="current_month_checkouts" operator="lessOrEqual" value="332.0"/>
								<Node score="46.10294254263086">
									<SimplePredicate field="previous_quarter_collection_central" operator="lessOrEqual" value="96.0"/>
									<Node score="3.0095757776090792">
										<SimplePredicate field="number_months_available" operator="lessOrEqual" value="7.0"/>
									</Node>
								</Node>
								<Node score="22.86565126082533">
									<SimplePredicate field="previous_quarter_checkouts" operator="lessOrEqual" value="17.0"/>
								</Node>
							</Node>
							<Node score="-35.58843537414964">
								<SimplePredicate field="previous_month_checkouts" operator="lessOrEqual" value="376.0"/>
								<Node score="-101.58843537414964">
									<SimplePredicate field="number_months_available" operator="lessOrEqual" value="7.0"/>
								</Node>
							</Node>
							<Node score="10.05976270381708">
								<SimplePredicate field="current_month_collection_central" operator="lessOrEqual" value="32.0"/>
							</Node>
						</Node>
					</Node>
				</TreeModel>
			</Segment>
			<Segment id="4" weight="0.1">
				<True/>
				<TreeModel functionName="regression" missingValueStrategy="nullPrediction" noTrueChildStrategy="returnLastPrediction">
					<MiningSchema>
						<MiningField name="number_months_available"/>
						<MiningField name="total_checkouts"/>
						<MiningField name="previous_quarter_checkouts"/>
						<MiningField name="previous_month_checkouts"/>
						<MiningField name="current_month_checkouts"/>
						<MiningField name="total_collection_central"/>
						<MiningField name="previous_quarter_collection_central"/>
						<MiningField name="previous_month_collection_central"/>
						<MiningField name="current_month_collection_central"/>
						<MiningField name="total_collection_other"/>
						<MiningField name="previous_quarter_collection_other"/>
						<MiningField name="previous_month_collection_other"/>
						<MiningField name="current_month_collection_other"/>
					</MiningSchema>
					<Node score="138.73777777777775">
						<True/>
						<Node score="6.802635105711627">
							<SimplePredicate field="previous_month_collection_central" operator="lessOrEqual" value="31.0"/>
							<Node score="-132.69333333333327">
								<SimplePredicate field="previous_quarter_collection_central" operator="lessOrEqual" value="89.0"/>
								<Node score="83.68623266734875">
									<SimplePredicate field="previous_quarter_checkouts" operator="lessOrEqual" value="988.0"/>
									<Node score="-121.47830913749715">
										<SimplePredicate field="previous_month_collection_central" operator="lessOrEqual" value="26.0"/>
										<Node score="-114.6918087807573">
											<SimplePredicate field="current_month_checkouts" operator="lessOrEqual" value="245.0"/>
											<Node score="-1.1531860887243501">
												<SimplePredicate field="current_month_collection_other" operator="lessOrEqual" value="287.0"/>
												<Node score="-18.605536916573502">
													<SimplePredicate field="previous_month_collection_central" operator="lessOrEqual" value="24.0"/>
													<Node score="1.026733403869985">
														<SimplePredicate field="previous_quarter_collection_other" operator="lessOrEqual" value="614.0"/>
													</Node>
												</Node>
												<Node score="-29.68009097940972">
													<SimplePredicate field="current_month_collection_central" operator="lessOrEqual" value="24.0"/>
												</Node>
											</Node>
											<Node score="-55.40415525780969">
												<SimplePredicate field="total_checkouts" operator="lessOrEqual" value="389.0"/>
											</Node>
										</Node>
										<Node score="-3.9304153498756738">
											<SimplePredicate field="previous_month_collection_other" operator="lessOrEqual" value="86.0"/>
											<Node score="124.13322789239601">
												<SimplePredicate field="current_month_collection_other" operator="lessOrEqual" value="24.0"/>
											</Node>
											<Node score="-109.68181912954765">
												<SimplePredicate field="current_month_collection_central" operator="lessOrEqual" value="4.0"/>
											</Node>
										</Node>
										<Node score="-5.8371213044175265">
											<SimplePredicate field="number_months_available" operator="lessOrEqual" value="6.0"/>
											<Node score="113.31315297616914">
												<SimplePredicate field="current_month_checkouts" operator="lessOrEqual" value="370.0"/>
											</Node>
										</Node>
										<Node score="173.30156432070498">
											<SimplePredicate field="current_month_collection_central" operator="lessOrEqual" value="19.0"/>
										</Node>
									</Node>
									<Node score="-199.57083099462162">
										<SimplePredicate field="number_months_available" operator="lessOrEqual" value="6.0"/>
										<Node score="98.4052747252747">
											<SimplePredicate field="current_month_checkouts" operator="lessOrEqual" value="245.0"/>
											<Node score="-3.408636316373012">
												<SimplePredicate field="current_month_collection_central" operator="lessOrEqual" value="31.0"/>
												<Node score="-16.321065454710595">
													<SimplePredicate field="previous_month_collection_other" operator="lessOrEqual" value="118.0"/>
												</Node>
											</Node>
										</Node>
										<Node score="192.4551795766979">
											<SimplePredicate field="total_collection_other" operator="lessOrEqual" value="780.0"/>
											<Node score="-17.639344664045968">
												<SimplePredicate field="number_months_available" operator="lessOrEqual" value="3.0"/>
											</Node>
										</Node>
										<Node score="-89.27822739805404">
											<SimplePredicate field="previous_month_collection_central" operator="lessOrEqual" value="28.0"/>
										</Node>
									</Node>
									<Node score="-44.36095151987746">
										<SimplePredicate field="current_month_checkouts" operator="lessOrEqual" value="245.0"/>
										<Node score="39.593428496841526">
											<SimplePredicate field="total_collection_central" operator="lessOrEqual" value="237.0"/>
											<Node score="1.731187921011429">
												<SimplePredicate field="previous_quarter_checkouts" operator="lessOrEqual" value="800.0"/>
											</Node>
										</Node>
										<Node score="2.014573111557086">
											<SimplePredicate field="current_month_checkouts" operator="lessOrEqual" value="110.0"/>
										</Node>
									</Node>
									<Node score="-124.73648826371799">
										<SimplePredicate field="previous_month_collection_other" operator="lessOrEqual" value="193.0"/>
										<Node score="79.8308732219408">
											<SimplePredicate field="previous_quarter_checkouts" operator="lessOrEqual" value="800.0"/>
										</Node>
									</Node>
									<Node score="263.65006028568075">
										<SimplePredicate field="previous_month_collection_central" operator="lessOrEqual" value="28.0"/>
									</Node>
								</Node>
								<Node score="13.429944079855593">
									<SimplePredicate field="current_month_collection_central" operator="lessOrEqual" value="30.0"/>
									<Node score="-10.586154899894666">
										<SimplePredicate field="current_month_checkouts" operator="lessOrEqual" value="332.0"/>
										<Node score="272.47536272406523">
											<SimplePredicate field="previous_quarter_collection_other" operator="lessOrEqual" value="382.0"/>
										</Node>
										<Node score="-21.75087180222606">
											<SimplePredicate field="number_months_available" operator="lessOrEqual" value="6.0"/>
											<Node score="57.42027643310733">
												<SimplePredicate field="total_collection_other" operator="lessOrEqual" value="677.0"/>
											</Node>
										</Node>
										<Node score="150.35489659258326">
											<SimplePredicate field="total_collection_central" operator="lessOrEqual" value="214.0"/>
										</Node>
									</Node>
									<Node score="-16.114307832138977">
										<SimplePredicate field="previous_month_collection_other" operator="lessOrEqual" value="234.0"/>
										<Node score="-13.032388363668616">
											<SimplePredicate field="total_checkouts" operator="lessOrEqual" value="2353.0"/>
											<Node score="14.869978234461716">
												<SimplePredicate field="current_month_collection_other" operator="lessOrEqual" value="206.0"/>
											</Node>
										</Node>
										<Node score="-218.24906271506268">
											<SimplePredicate field="number_months_available" operator="lessOrEqual" value="6.0"/>
										</Node>
									</Node>
									<Node score="15.442632215393667">
										<SimplePredicate field="total_collection_other" operator="lessOrEqual" value="1126.0"/>
										<Node score="72.35716000542233">
											<SimplePredicate field="current_month_checkouts" operator="lessOrEqual" value="443.0"/>
										</Node>
									</Node>
									<Node score="-64.56008755363756">
										<SimplePredicate field="total_checkouts" operator="lessOrEqual" value="2353.0"/>
									</Node>
								</Node>
								<Node score="-219.6724976076555">
									<SimplePredicate field="current_month_checkouts" operator="lessOrEqual" value="294.0"/>
								</Node>
								<Node score="127.83972172387644">
									<SimplePredicate field="current_month_collection_other" operator="lessOrEqual" value="215.0"/>
								</Node>
								<Node score="13.096298699099975">
									<SimplePredicate field="previous_month_collection_other" operator="lessOrEqual" value="287.0"/>
									<Node score="-27.3866921226623">
										<SimplePredicate field="number_months_available" operator="lessOrEqual" value="4.0"/>
									</Node>
								</Node>
							</Node>
							<Node score="85.28441193544643">
								<SimplePredicate field="previous_month_collection_other" operator="lessOrEqual" value="193.0"/>
								<Node score="56.65295177045178">
									<SimplePredicate field="current_month_checkouts" operator="lessOrEqual" value="245.0"/>
									<Node score="-89.64000000000001">
										<SimplePredicate field="total_collection_other" operator="lessOrEqual" value="245.0"/>
									</Node>
									<Node score="22.817011284349928">
										<SimplePredicate field="total_collection_other" operator="lessOrEqual" value="578.0"/>
										<Node score="-30.587222222222238">
											<SimplePredicate field="previous_quarter_collection_other" operator="lessOrEqual" value="317.0"/>
											<Node score="-1.195583089356976">
												<SimplePredicate field="total_checkouts" operator="lessOrEqual" value="672.0"/>
											</Node>
										</Node>
										<Node score="51.7877095874404">
											<SimplePredicate field="previous_month_collection_other" operator="lessOrEqual" value="118.0"/>
										</Node>
									</Node>
									<Node score="-14.104277591090355">
										<SimplePredicate field="total_collection_central" operator="lessOrEqual" value="237.0"/>
										<Node score="-42.43110513182696">
											<SimplePredicate field="number_months_available" operator="lessOrEqual" value="4.0"/>
										</Node>
									</Node>
									<Node score="3.0452332551854875">
										<SimplePredicate field="previous_quarter_checkouts" operator="lessOrEqual" value="602.0"/>
									</Node>
								</Node>
								<Node score="101.72579124579124">
									<SimplePredicate field="number_months_available" operator="lessOrEqual" value="3.0"/>
									<Node score="151.53777777777776">
										<SimplePredicate field="total_checkouts" operator="lessOrEqual" value="914.0"/>
									</Node>
								</Node>
								<Node score="27.46623011726456">
									<SimplePredicate field="total_collection_other" operator="lessOrEqual" value="621.0"/>
									<Node score="69.6177777777778">
										<SimplePredicate field="total_checkouts" operator="lessOrEqual" value="914.0"/>
									</Node>
									<Node score="-33.11838383838386">
										<SimplePredicate field="total_checkouts" operator="lessOrEqual" value="1187.0"/>
									</Node>
								</Node>
								<Node score="67.6240007054891">
									<SimplePredicate field="previous_quarter_checkouts" operator="lessOrEqual" value="988.0"/>
									<Node score="101.77848469247652">
										<SimplePredicate field="number_months_available" operator="lessOrEqual" value="5.0"/>
									</Node>
								</Node>
								<Node score="53.390690816208064">
									<SimplePredicate field="total_checkouts" operator="lessOrEqual" value="1871.0"/>
								</Node>
							</Node>
							<Node score="-22.855924511218618">
								<SimplePredicate field="previous_quarter_collection_other" operator="lessOrEqual" value="614.0"/>
								<Node score="91.59890410958903">
									<SimplePredicate field="current_month_checkouts" operator="lessOrEqual" value="245.0"/>
									<Node score="-43.09527272727273">
										<SimplePredicate field="previous_quarter_checkouts" operator="lessOrEqual" value="886.0"/>
										<Node score="-79.7806047362495">
											<SimplePredicate field="number_months_available" operator="lessOrEqual" value="5.0"/>
											<Node score="-28.08625490090275">
												<SimplePredicate field="current_month_checkouts" operator="lessOrEqual" value="110.0"/>
											</Node>
										</Node>
										<Node score="0.10300952816974274">
											<SimplePredicate field="previous_quarter_collection_central" operator="lessOrEqual" value="90.0"/>
										</Node>
									</Node>
									<Node score="1.5177845536866386">
										<SimplePredicate field="current_month_checkouts" operator="lessOrEqual" value="183.0"/>
									</Node>
									<Node score="159.43890410958903">
										<SimplePredicate field="number_months_available" operator="lessOrEqual" value="4.0"/>
									</Node>
								</Node>
								<Node score="-52.43935214211069">
									<SimplePredicate field="total_checkouts" operator="lessOrEqual" value="1187.0"/>
									<Node score="74.73777777777775">
										<SimplePredicate field="current_month_checkouts" operator="lessOrEqual" value="294.0"/>
										<Node score="-13.824000000000012">
											<SimplePredicate field="number_months_available" operator="lessOrEqual" value="3.0"/>
										</Node>
									</Node>
									<Node score="-266.5011006617903">
										<SimplePredicate field="current_month_checkouts" operator="lessOrEqual" value="370.0"/>
									</Node>
								</Node>
								<Node score="-105.35457347227938">
									<SimplePredicate field="current_month_checkouts" operator="lessOrEqual" value="332.0"/>
									<Node score="82.186746031746">
										<SimplePredicate field="previous_quarter_checkouts" operator="lessOrEqual" value="886.0"/>
									</Node>
								</Node>
								<Node score="77.32687700534763">
									<SimplePredicate field="previous_month_collection_other" operator="lessOrEqual" value="195.0"/>
								</Node>
							</Node>
							<Node score="137.31101541577232">
								<SimplePredicate field="previous_quarter_collection_other" operator="lessOrEqual" value="708.0"/>
								<Node score="101.6282101404101">
									<SimplePredicate field="current_month_collection_other" operator="lessOrEqual" value="235.0"/>
									<Node score="-235.82129798076699">
										<SimplePredicate field="total_collection_other" operator="lessOrEqual" value="1126.0"/>
										<Node score="2.5819498876200817">
											<SimplePredicate field="total_checkouts" operator="lessOrEqual" value="2153.0"/>
										</Node>
									</Node>
									<Node score="-0.9152814376677308">
										<SimplePredicate field="previous_quarter_checkouts" operator="lessOrEqual" value="886.0"/>
									</Node>
								</Node>
								<Node score="44.157280333168146">
									<SimplePredicate field="previous_quarter_collection_central" operator="lessOrEqual" value="90.0"/>
									<Node score="15.246953237534242">
										<SimplePredicate field="previous_quarter_checkouts" operator="lessOrEqual" value="1080.0"/>
									</Node>
								</Node>
								<Node score="100.14293187181325">
									<SimplePredicate field="number_months_available" operator="lessOrEqual" value="3.0"/>
								</Node>
							</Node>
							<Node score="-127.21389428303594">
								<SimplePredicate field="current_month_collection_other" operator="lessOrEqual" value="259.0"/>
								<Node score="-26.334719458635888">
									<SimplePredicate field="current_month_checkouts" operator="lessOrEqual" value="370.0"/>
									<Node score="-0.6129972268201244">
										<SimplePredicate field="current_month_checkouts" operator="lessOrEqual" value="138.0"/>
									</Node>
								</Node>
								<Node score="-2.5779743907561965">
									<SimplePredicate field="previous_month_checkouts" operator="lessOrEqual" value="437.0"/>
								</Node>
							</Node>
							<Node score="182.15071688106218">
								<SimplePredicate field="previous_quarter_collection_other" operator="lessOrEqual" value="752.0"/>
							</Node>
							<Node score="-45.396070763279006">
								<SimplePredicate field="total_collection_other" operator="lessOrEqual" value="895.0"/>
							</Node>
						</Node>
						<Node score="-39.082878115348706">
							<SimplePredicate field="current_month_collection_other" operator="lessOrEqual" value="195.0"/>
							<Node score="-15.637891830533022">
								<SimplePredicate field="previous_month_checkouts" operator="lessOrEqual" value="134.0"/>
								<Node score="68.69958288532337">
									<SimplePredicate field="total_checkouts" operator="lessOrEqual" value="338.0"/>
									<Node score="-57.02403499967832">
										<SimplePredicate field="previous_month_checkouts" operator="lessOrEqual" value="50.0"/>
										<Node score="31.808546947960743">
											<SimplePredicate field="previous_month_checkouts" operator="lessOrEqual" value="38.0"/>
											<Node score="-36.627266875881524">
												<SimplePredicate field="previous_month_collection_other" operator="lessOrEqual" value="165.0"/>
												<Node score="0.24735246157156768">
													<SimplePredicate field="current_month_checkouts" operator="lessOrEqual" value="27.0"/>
												</Node>
											</Node>
											<Node score="13.054613035188838">
												<SimplePredicate field="current_month_checkouts" operator="lessOrEqual" value="90.0"/>
											</Node>
